digraph Tree {
node [shape=box, style="filled, rounded", color="black", fontname="helvetica"] ;
edge [fontname="helvetica"] ;
0 [label="ZCR[2] <= -0.52\ngini = 0.85\nsamples = 340\nvalue = [93, 76, 73, 68, 66, 75, 91]\nclass = Conga&Bongo", fillcolor="#fffefe"] ;
1 [label="ZCR[1] <= -1.06\ngini = 0.67\nsamples = 159\nvalue = [93, 0, 0, 68, 1, 4, 88]\nclass = Conga&Bongo", fillcolor="#fefbf9"] ;
0 -> 1 [labeldistance=2.5, labelangle=45, headlabel="True"] ;
2 [label="ZCR[11] <= -0.52\ngini = 0.25\nsamples = 38\nvalue = [1, 0, 0, 49, 0, 0, 7]\nclass = Kick", fillcolor="#59e9e7"] ;
1 -> 2 ;
3 [label="gini = 0.0\nsamples = 26\nvalue = [0, 0, 0, 41, 0, 0, 0]\nclass = Kick", fillcolor="#39e5e2"] ;
2 -> 3 ;
4 [label="Bdw[0] <= -1.25\ngini = 0.55\nsamples = 12\nvalue = [1, 0, 0, 8, 0, 0, 7]\nclass = Kick", fillcolor="#e9fcfc"] ;
2 -> 4 ;
5 [label="Bdw[3] <= -2.27\ngini = 0.32\nsamples = 7\nvalue = [0, 0, 0, 8, 0, 0, 2]\nclass = Kick", fillcolor="#6aece9"] ;
4 -> 5 ;
6 [label="gini = 0.0\nsamples = 1\nvalue = [0, 0, 0, 0, 0, 0, 2]\nclass = Tom", fillcolor="#e53986"] ;
5 -> 6 ;
7 [label="gini = 0.0\nsamples = 6\nvalue = [0, 0, 0, 8, 0, 0, 0]\nclass = Kick", fillcolor="#39e5e2"] ;
5 -> 7 ;
8 [label="Flt[2] <= -0.91\ngini = 0.28\nsamples = 5\nvalue = [1, 0, 0, 0, 0, 0, 5]\nclass = Tom", fillcolor="#ea619e"] ;
4 -> 8 ;
9 [label="gini = 0.0\nsamples = 1\nvalue = [1, 0, 0, 0, 0, 0, 0]\nclass = Conga&Bongo", fillcolor="#e58139"] ;
8 -> 9 ;
10 [label="gini = 0.0\nsamples = 4\nvalue = [0, 0, 0, 0, 0, 0, 5]\nclass = Tom", fillcolor="#e53986"] ;
8 -> 10 ;
11 [label="Bdw[4] <= -0.72\ngini = 0.6\nsamples = 121\nvalue = [92, 0, 0, 19, 1, 4, 81]\nclass = Conga&Bongo", fillcolor="#fdf3ec"] ;
1 -> 11 ;
12 [label="ZCR[4] <= -1.01\ngini = 0.32\nsamples = 56\nvalue = [75, 0, 0, 5, 0, 0, 12]\nclass = Conga&Bongo", fillcolor="#eb9c63"] ;
11 -> 12 ;
13 [label="Roll[11] <= -0.66\ngini = 0.42\nsamples = 11\nvalue = [0, 0, 0, 5, 0, 0, 12]\nclass = Tom", fillcolor="#f08bb8"] ;
12 -> 13 ;
14 [label="gini = 0.0\nsamples = 3\nvalue = [0, 0, 0, 3, 0, 0, 0]\nclass = Kick", fillcolor="#39e5e2"] ;
13 -> 14 ;
15 [label="gini = 0.24\nsamples = 8\nvalue = [0, 0, 0, 2, 0, 0, 12]\nclass = Tom", fillcolor="#e95a9a"] ;
13 -> 15 ;
16 [label="gini = 0.0\nsamples = 45\nvalue = [75, 0, 0, 0, 0, 0, 0]\nclass = Conga&Bongo", fillcolor="#e58139"] ;
12 -> 16 ;
17 [label="Roll[0] <= -0.57\ngini = 0.52\nsamples = 65\nvalue = [17, 0, 0, 14, 1, 4, 69]\nclass = Tom", fillcolor="#f08ab8"] ;
11 -> 17 ;
18 [label="Roll[12] <= -0.25\ngini = 0.55\nsamples = 13\nvalue = [5, 0, 0, 13, 0, 2, 1]\nclass = Kick", fillcolor="#9cf2f0"] ;
17 -> 18 ;
19 [label="gini = 0.24\nsamples = 10\nvalue = [1, 0, 0, 13, 0, 0, 1]\nclass = Kick", fillcolor="#55e9e6"] ;
18 -> 19 ;
20 [label="gini = 0.44\nsamples = 3\nvalue = [4, 0, 0, 0, 0, 2, 0]\nclass = Conga&Bongo", fillcolor="#f2c09c"] ;
18 -> 20 ;
21 [label="ZCR[8] <= -0.5\ngini = 0.32\nsamples = 52\nvalue = [12, 0, 0, 1, 1, 2, 68]\nclass = Tom", fillcolor="#eb65a1"] ;
17 -> 21 ;
22 [label="gini = 0.22\nsamples = 45\nvalue = [7, 0, 0, 1, 1, 0, 65]\nclass = Tom", fillcolor="#e85496"] ;
21 -> 22 ;
23 [label="gini = 0.62\nsamples = 7\nvalue = [5, 0, 0, 0, 0, 2, 3]\nclass = Conga&Bongo", fillcolor="#f8dbc6"] ;
21 -> 23 ;
24 [label="Roll[12] <= 1.34\ngini = 0.75\nsamples = 181\nvalue = [0, 76, 73, 0, 65, 71, 3]\nclass = Crash&OpenHat", fillcolor="#fefffc"] ;
0 -> 24 [labeldistance=2.5, labelangle=-45, headlabel="False"] ;
25 [label="ZCR[0] <= 0.49\ngini = 0.7\nsamples = 124\nvalue = [0, 13, 70, 0, 46, 65, 2]\nclass = Hi-Hat", fillcolor="#f7fef8"] ;
24 -> 25 ;
26 [label="ZCR[13] <= 0.7\ngini = 0.33\nsamples = 52\nvalue = [0, 6, 7, 0, 0, 65, 2]\nclass = Snare", fillcolor="#c162ea"] ;
25 -> 26 ;
27 [label="Flt[4] <= -0.03\ngini = 0.28\nsamples = 50\nvalue = [0, 3, 7, 0, 0, 65, 2]\nclass = Snare", fillcolor="#be5be9"] ;
26 -> 27 ;
28 [label="gini = 0.63\nsamples = 13\nvalue = [0, 2, 7, 0, 0, 11, 2]\nclass = Snare", fillcolor="#eacaf8"] ;
27 -> 28 ;
29 [label="gini = 0.04\nsamples = 37\nvalue = [0, 1, 0, 0, 0, 54, 0]\nclass = Snare", fillcolor="#b23de5"] ;
27 -> 29 ;
30 [label="gini = 0.0\nsamples = 2\nvalue = [0, 3, 0, 0, 0, 0, 0]\nclass = Crash&OpenHat", fillcolor="#b7e539"] ;
26 -> 30 ;
31 [label="Roll[0] <= 0.74\ngini = 0.54\nsamples = 72\nvalue = [0, 7, 63, 0, 46, 0, 0]\nclass = Hi-Hat", fillcolor="#cff9d4"] ;
25 -> 31 ;
32 [label="ZCR[10] <= 0.68\ngini = 0.18\nsamples = 20\nvalue = [0, 0, 37, 0, 4, 0, 0]\nclass = Hi-Hat", fillcolor="#4ee860"] ;
31 -> 32 ;
33 [label="gini = 0.0\nsamples = 17\nvalue = [0, 0, 36, 0, 0, 0, 0]\nclass = Hi-Hat", fillcolor="#39e54d"] ;
32 -> 33 ;
34 [label="gini = 0.32\nsamples = 3\nvalue = [0, 0, 1, 0, 4, 0, 0]\nclass = Shaker", fillcolor="#6a80ec"] ;
32 -> 34 ;
35 [label="Bdw[2] <= 0.82\ngini = 0.56\nsamples = 52\nvalue = [0, 7, 26, 0, 42, 0, 0]\nclass = Shaker", fillcolor="#bec8f7"] ;
31 -> 35 ;
36 [label="gini = 0.45\nsamples = 44\nvalue = [0, 0, 22, 0, 42, 0, 0]\nclass = Shaker", fillcolor="#a1aff3"] ;
35 -> 36 ;
37 [label="gini = 0.46\nsamples = 8\nvalue = [0, 7, 4, 0, 0, 0, 0]\nclass = Crash&OpenHat", fillcolor="#e0f4aa"] ;
35 -> 37 ;
38 [label="ZCR[12] <= 1.01\ngini = 0.48\nsamples = 57\nvalue = [0, 63, 3, 0, 19, 6, 1]\nclass = Crash&OpenHat", fillcolor="#d4ef88"] ;
24 -> 38 ;
39 [label="ZCR[2] <= 0.11\ngini = 0.57\nsamples = 7\nvalue = [0, 0, 0, 0, 5, 6, 1]\nclass = Snare", fillcolor="#f4e3fb"] ;
38 -> 39 ;
40 [label="Flt[9] <= 0.11\ngini = 0.24\nsamples = 4\nvalue = [0, 0, 0, 0, 0, 6, 1]\nclass = Snare", fillcolor="#be5ae9"] ;
39 -> 40 ;
41 [label="gini = 0.0\nsamples = 1\nvalue = [0, 0, 0, 0, 0, 0, 1]\nclass = Tom", fillcolor="#e53986"] ;
40 -> 41 ;
42 [label="gini = 0.0\nsamples = 3\nvalue = [0, 0, 0, 0, 0, 6, 0]\nclass = Snare", fillcolor="#b139e5"] ;
40 -> 42 ;
43 [label="gini = 0.0\nsamples = 3\nvalue = [0, 0, 0, 0, 5, 0, 0]\nclass = Shaker", fillcolor="#3956e5"] ;
39 -> 43 ;
44 [label="Flt[11] <= 1.92\ngini = 0.35\nsamples = 50\nvalue = [0, 63, 3, 0, 14, 0, 0]\nclass = Crash&OpenHat", fillcolor="#caec6c"] ;
38 -> 44 ;
45 [label="Roll[2] <= 1.35\ngini = 0.1\nsamples = 36\nvalue = [0, 52, 3, 0, 0, 0, 0]\nclass = Crash&OpenHat", fillcolor="#bbe644"] ;
44 -> 45 ;
46 [label="gini = 0.0\nsamples = 34\nvalue = [0, 52, 0, 0, 0, 0, 0]\nclass = Crash&OpenHat", fillcolor="#b7e539"] ;
45 -> 46 ;
47 [label="gini = 0.0\nsamples = 2\nvalue = [0, 0, 3, 0, 0, 0, 0]\nclass = Hi-Hat", fillcolor="#39e54d"] ;
45 -> 47 ;
48 [label="Flt[0] <= 1.39\ngini = 0.49\nsamples = 14\nvalue = [0, 11, 0, 0, 14, 0, 0]\nclass = Shaker", fillcolor="#d5dbf9"] ;
44 -> 48 ;
49 [label="gini = 0.35\nsamples = 9\nvalue = [0, 4, 0, 0, 14, 0, 0]\nclass = Shaker", fillcolor="#7286ec"] ;
48 -> 49 ;
50 [label="gini = 0.0\nsamples = 5\nvalue = [0, 7, 0, 0, 0, 0, 0]\nclass = Crash&OpenHat", fillcolor="#b7e539"] ;
48 -> 50 ;
}